digraph Tree {
node [shape=box, style="filled, rounded", color="black", fontname=helvetica] ;
edge [fontname=helvetica] ;
0 [label=<votes &le; 279.0<br/>gini = 0.141<br/>samples = 3028<br/>value = [2797, 231]>, fillcolor="#e58139ea"] ;
1 [label=<country_code &le; 7.5<br/>gini = 0.049<br/>samples = 2817<br/>value = [2746, 71]>, fillcolor="#e58139f8"] ;
0 -> 1 [labeldistance=2.5, labelangle=45, headlabel="True"] ;
2 [label=<votes &le; 195.5<br/>gini = 0.021<br/>samples = 2735<br/>value = [2706, 29]>, fillcolor="#e58139fc"] ;
1 -> 2 ;
3 [label=<longitude &le; 85.579<br/>gini = 0.012<br/>samples = 2669<br/>value = [2653, 16]>, fillcolor="#e58139fd"] ;
2 -> 3 ;
4 [label=<average_cost_for_two &le; 25.0<br/>gini = 0.01<br/>samples = 2667<br/>value = [2653, 14]>, fillcolor="#e58139fe"] ;
3 -> 4 ;
5 [label=<gini = 0.0<br/>samples = 1<br/>value = [0, 1]>, fillcolor="#399de5ff"] ;
4 -> 5 ;
6 [label=<gini = 0.01<br/>samples = 2666<br/>value = [2653, 13]>, fillcolor="#e58139fe"] ;
4 -> 6 ;
7 [label=<gini = 0.0<br/>samples = 2<br/>value = [0, 2]>, fillcolor="#399de5ff"] ;
3 -> 7 ;
8 [label=<longitude &le; 77.067<br/>gini = 0.316<br/>samples = 66<br/>value = [53, 13]>, fillcolor="#e58139c0"] ;
2 -> 8 ;
9 [label=<gini = 0.0<br/>samples = 7<br/>value = [0, 7]>, fillcolor="#399de5ff"] ;
8 -> 9 ;
10 [label=<longitude &le; 77.489<br/>gini = 0.183<br/>samples = 59<br/>value = [53, 6]>, fillcolor="#e58139e2"] ;
8 -> 10 ;
11 [label=<gini = 0.103<br/>samples = 55<br/>value = [52, 3]>, fillcolor="#e58139f0"] ;
10 -> 11 ;
12 [label=<gini = 0.375<br/>samples = 4<br/>value = [1, 3]>, fillcolor="#399de5aa"] ;
10 -> 12 ;
13 [label=<votes &le; 121.0<br/>gini = 0.5<br/>samples = 82<br/>value = [40, 42]>, fillcolor="#399de50c"] ;
1 -> 13 ;
14 [label=<latitude &le; -15.792<br/>gini = 0.444<br/>samples = 57<br/>value = [38, 19]>, fillcolor="#e581397f"] ;
13 -> 14 ;
15 [label=<latitude &le; -25.772<br/>gini = 0.388<br/>samples = 19<br/>value = [5, 14]>, fillcolor="#399de5a4"] ;
14 -> 15 ;
16 [label=<gini = 0.0<br/>samples = 3<br/>value = [3, 0]>, fillcolor="#e58139ff"] ;
15 -> 16 ;
17 [label=<gini = 0.219<br/>samples = 16<br/>value = [2, 14]>, fillcolor="#399de5db"] ;
15 -> 17 ;
18 [label=<votes &le; 73.0<br/>gini = 0.229<br/>samples = 38<br/>value = [33, 5]>, fillcolor="#e58139d8"] ;
14 -> 18 ;
19 [label=<gini = 0.0<br/>samples = 29<br/>value = [29, 0]>, fillcolor="#e58139ff"] ;
18 -> 19 ;
20 [label=<gini = 0.494<br/>samples = 9<br/>value = [4, 5]>, fillcolor="#399de533"] ;
18 -> 20 ;
21 [label=<average_cost_for_two &le; 50750.0<br/>gini = 0.147<br/>samples = 25<br/>value = [2, 23]>, fillcolor="#399de5e9"] ;
13 -> 21 ;
22 [label=<longitude &le; -90.595<br/>gini = 0.08<br/>samples = 24<br/>value = [1, 23]>, fillcolor="#399de5f4"] ;
21 -> 22 ;
23 [label=<gini = 0.0<br/>samples = 1<br/>value = [1, 0]>, fillcolor="#e58139ff"] ;
22 -> 23 ;
24 [label=<gini = 0.0<br/>samples = 23<br/>value = [0, 23]>, fillcolor="#399de5ff"] ;
22 -> 24 ;
25 [label=<gini = 0.0<br/>samples = 1<br/>value = [1, 0]>, fillcolor="#e58139ff"] ;
21 -> 25 ;
26 [label=<country_code &le; 47.5<br/>gini = 0.367<br/>samples = 211<br/>value = [51, 160]>, fillcolor="#399de5ae"] ;
0 -> 26 [labeldistance=2.5, labelangle=-45, headlabel="False"] ;
27 [label=<latitude &le; 28.435<br/>gini = 0.49<br/>samples = 114<br/>value = [49, 65]>, fillcolor="#399de53f"] ;
26 -> 27 ;
28 [label=<latitude &le; 12.419<br/>gini = 0.044<br/>samples = 44<br/>value = [1, 43]>, fillcolor="#399de5f9"] ;
27 -> 28 ;
29 [label=<longitude &le; 78.06<br/>gini = 0.444<br/>samples = 3<br/>value = [1, 2]>, fillcolor="#399de57f"] ;
28 -> 29 ;
30 [label=<gini = 0.0<br/>samples = 2<br/>value = [0, 2]>, fillcolor="#399de5ff"] ;
29 -> 30 ;
31 [label=<gini = 0.0<br/>samples = 1<br/>value = [1, 0]>, fillcolor="#e58139ff"] ;
29 -> 31 ;
32 [label=<gini = 0.0<br/>samples = 41<br/>value = [0, 41]>, fillcolor="#399de5ff"] ;
28 -> 32 ;
33 [label=<votes &le; 1027.5<br/>gini = 0.431<br/>samples = 70<br/>value = [48, 22]>, fillcolor="#e581398a"] ;
27 -> 33 ;
34 [label=<average_cost_for_two &le; 300.0<br/>gini = 0.341<br/>samples = 55<br/>value = [43, 12]>, fillcolor="#e58139b8"] ;
33 -> 34 ;
35 [label=<gini = 0.0<br/>samples = 4<br/>value = [0, 4]>, fillcolor="#399de5ff"] ;
34 -> 35 ;
36 [label=<gini = 0.265<br/>samples = 51<br/>value = [43, 8]>, fillcolor="#e58139d0"] ;
34 -> 36 ;
37 [label=<average_cost_for_two &le; 1375.0<br/>gini = 0.444<br/>samples = 15<br/>value = [5, 10]>, fillcolor="#399de57f"] ;
33 -> 37 ;
38 [label=<gini = 0.494<br/>samples = 9<br/>value = [5, 4]>, fillcolor="#e5813933"] ;
37 -> 38 ;
39 [label=<gini = 0.0<br/>samples = 6<br/>value = [0, 6]>, fillcolor="#399de5ff"] ;
37 -> 39 ;
40 [label=<cuisine_rate &le; 30.0<br/>gini = 0.04<br/>samples = 97<br/>value = [2, 95]>, fillcolor="#399de5fa"] ;
26 -> 40 ;
41 [label=<longitude &le; -81.095<br/>gini = 0.085<br/>samples = 45<br/>value = [2, 43]>, fillcolor="#399de5f3"] ;
40 -> 41 ;
42 [label=<gini = 0.0<br/>samples = 20<br/>value = [0, 20]>, fillcolor="#399de5ff"] ;
41 -> 42 ;
43 [label=<country_code &le; 215.5<br/>gini = 0.147<br/>samples = 25<br/>value = [2, 23]>, fillcolor="#399de5e9"] ;
41 -> 43 ;
44 [label=<gini = 0.08<br/>samples = 24<br/>value = [1, 23]>, fillcolor="#399de5f4"] ;
43 -> 44 ;
45 [label=<gini = 0.0<br/>samples = 1<br/>value = [1, 0]>, fillcolor="#e58139ff"] ;
43 -> 45 ;
46 [label=<gini = 0.0<br/>samples = 52<br/>value = [0, 52]>, fillcolor="#399de5ff"] ;
40 -> 46 ;
}